digraph Tree {
node [shape=box, style="filled, rounded", color="black", fontname=helvetica] ;
edge [fontname=helvetica] ;
0 [label="petal length (cm) <= 2.45\ngini = 0.66\nsamples = 98\nvalue = [43, 47, 60]\nclass = virginica", fillcolor="#efe6fc"] ;
1 [label="gini = 0.0\nsamples = 32\nvalue = [43, 0, 0]\nclass = setosa", fillcolor="#e58139"] ;
0 -> 1 [labeldistance=2.5, labelangle=45, headlabel="True"] ;
2 [label="petal length (cm) <= 4.85\ngini = 0.49\nsamples = 66\nvalue = [0, 47, 60]\nclass = virginica", fillcolor="#e4d4f9"] ;
0 -> 2 [labeldistance=2.5, labelangle=-45, headlabel="False"] ;
3 [label="sepal length (cm) <= 4.95\ngini = 0.12\nsamples = 32\nvalue = [0, 44, 3]\nclass = versicolor", fillcolor="#46e78a"] ;
2 -> 3 ;
4 [label="gini = 0.0\nsamples = 1\nvalue = [0, 0, 2]\nclass = virginica", fillcolor="#8139e5"] ;
3 -> 4 ;
5 [label="sepal length (cm) <= 6.15\ngini = 0.04\nsamples = 31\nvalue = [0, 44, 1]\nclass = versicolor", fillcolor="#3de684"] ;
3 -> 5 ;
6 [label="gini = 0.0\nsamples = 23\nvalue = [0, 33, 0]\nclass = versicolor", fillcolor="#39e581"] ;
5 -> 6 ;
7 [label="sepal length (cm) <= 6.25\ngini = 0.15\nsamples = 8\nvalue = [0, 11, 1]\nclass = versicolor", fillcolor="#4be78c"] ;
5 -> 7 ;
8 [label="sepal width (cm) <= 2.5\ngini = 0.5\nsamples = 2\nvalue = [0, 1, 1]\nclass = versicolor", fillcolor="#ffffff"] ;
7 -> 8 ;
9 [label="gini = 0.0\nsamples = 1\nvalue = [0, 1, 0]\nclass = versicolor", fillcolor="#39e581"] ;
8 -> 9 ;
10 [label="gini = 0.0\nsamples = 1\nvalue = [0, 0, 1]\nclass = virginica", fillcolor="#8139e5"] ;
8 -> 10 ;
11 [label="gini = 0.0\nsamples = 6\nvalue = [0, 10, 0]\nclass = versicolor", fillcolor="#39e581"] ;
7 -> 11 ;
12 [label="sepal width (cm) <= 2.55\ngini = 0.09\nsamples = 34\nvalue = [0, 3, 57]\nclass = virginica", fillcolor="#8843e6"] ;
2 -> 12 ;
13 [label="petal length (cm) <= 4.95\ngini = 0.41\nsamples = 4\nvalue = [0, 2, 5]\nclass = virginica", fillcolor="#b388ef"] ;
12 -> 13 ;
14 [label="gini = 0.0\nsamples = 1\nvalue = [0, 2, 0]\nclass = versicolor", fillcolor="#39e581"] ;
13 -> 14 ;
15 [label="gini = 0.0\nsamples = 3\nvalue = [0, 0, 5]\nclass = virginica", fillcolor="#8139e5"] ;
13 -> 15 ;
16 [label="petal width (cm) <= 1.55\ngini = 0.04\nsamples = 30\nvalue = [0, 1, 52]\nclass = virginica", fillcolor="#833de6"] ;
12 -> 16 ;
17 [label="petal length (cm) <= 5.0\ngini = 0.32\nsamples = 3\nvalue = [0, 1, 4]\nclass = virginica", fillcolor="#a06aec"] ;
16 -> 17 ;
18 [label="gini = 0.0\nsamples = 1\nvalue = [0, 1, 0]\nclass = versicolor", fillcolor="#39e581"] ;
17 -> 18 ;
19 [label="gini = 0.0\nsamples = 2\nvalue = [0, 0, 4]\nclass = virginica", fillcolor="#8139e5"] ;
17 -> 19 ;
20 [label="gini = 0.0\nsamples = 27\nvalue = [0, 0, 48]\nclass = virginica", fillcolor="#8139e5"] ;
16 -> 20 ;
}